<?xml version="1.0"?>
<opencv_storage>
<stage13>
  <maxWeakCount>9</maxWeakCount>
  <stageThreshold>-5.7940125465393066e-01</stageThreshold>
  <weakClassifiers>
    <_>
      <internalNodes>
        0 -1 460 -487981558 405182107 -1090 -82870429 1073828724
        336078368 1467448981 1417671286</internalNodes>
      <leafValues>
        -4.3355119228363037e-01 5.2497810125350952e-01</leafValues></_>
    <_>
      <internalNodes>
        0 -1 115835 705859830 551111185 1090535963 272634240 -1610599687
        1786970192 1979712488 1627799649</internalNodes>
      <leafValues>
        -5.6471145153045654e-01 3.7291899323463440e-01</leafValues></_>
    <_>
      <internalNodes>
        0 -1 117316 1075568802 553754899 1090932736 -1023041525 51052554
        -939359616 223346845 466872331</internalNodes>
      <leafValues>
        -4.5988246798515320e-01 5.1745319366455078e-01</leafValues></_>
    <_>
      <internalNodes>
        0 -1 148199 -242558850 -665611999 176095786 -1707011951
        939557000 -2130149363 897599547 -1013200180</internalNodes>
      <leafValues>
        -4.9862772226333618e-01 4.3695005774497986e-01</leafValues></_>
    <_>
      <internalNodes>
        0 -1 120683 -1995864800 -985038174 117735890 -1055598592
        -1476361751 -679426047 -1061090742 -103955935</internalNodes>
      <leafValues>
        -5.1469022035598755e-01 4.2461520433425903e-01</leafValues></_>
    <_>
      <internalNodes>
        0 -1 259869 -335002607 77021205 -2130702157 -553582063
        -1925182237 -1081081725 -1861613174 298558082</internalNodes>
      <leafValues>
        -4.6471932530403137e-01 5.1094734668731689e-01</leafValues></_>
    <_>
      <internalNodes>
        0 -1 65944 -496527745 1937501751 -571473970 598064892 125794268
        -1107886089 1425734909 -1001274304</internalNodes>
      <leafValues>
        -4.3150278925895691e-01 5.5781334638595581e-01</leafValues></_>
    <_>
      <internalNodes>
        0 -1 242628 -974205014 -1860981060 -1484984416 -773633225
        -847819318 209551222 -1888288940 -1644433497</internalNodes>
      <leafValues>
        -4.2153143882751465e-01 5.7071924209594727e-01</leafValues></_>
    <_>
      <internalNodes>
        0 -1 7466 -1852876018 -1324629311 -2147483628 285450271
        1079126486 713625736 270830113 1627910176</internalNodes>
      <leafValues>
        -5.6122756004333496e-01 4.2876148223876953e-01</leafValues></_></weakClassifiers></stage13>
</opencv_storage>
