<?xml version="1.0"?>
<opencv_storage>
<stage3>
  <maxWeakCount>9</maxWeakCount>
  <stageThreshold>-6.9475924968719482e-01</stageThreshold>
  <weakClassifiers>
    <_>
      <internalNodes>
        0 -1 60387 1655087338 1744027774 -84411393 1996095487 -276896870
        851965901 -1291837442 -1148484981</internalNodes>
      <leafValues>
        -4.2748090624809265e-01 5.7992565631866455e-01</leafValues></_>
    <_>
      <internalNodes>
        0 -1 200109 1384108155 1969450115 649277007 859799102 -79709393
        -952109193 922746879 448528379</internalNodes>
      <leafValues>
        -4.0050455927848816e-01 5.4232740402221680e-01</leafValues></_>
    <_>
      <internalNodes>
        0 -1 115773 -914175582 117444864 67125280 -306102254 1250465923
        -1945632606 143134805 -649871311</internalNodes>
      <leafValues>
        -5.9553134441375732e-01 3.9300769567489624e-01</leafValues></_>
    <_>
      <internalNodes>
        0 -1 76828 1112230626 -1861664701 -1861091200 1392705543
        1175044239 -1341521789 1417789862 1483993967</internalNodes>
      <leafValues>
        -5.1466959714889526e-01 4.3004626035690308e-01</leafValues></_>
    <_>
      <internalNodes>
        0 -1 197897 -899432274 389159002 337697226 1560539395 134349446
        -1719074656 8569474 1218535491</internalNodes>
      <leafValues>
        -5.3298491239547729e-01 4.2458978295326233e-01</leafValues></_>
    <_>
      <internalNodes>
        0 -1 4932 -973016998 -1811868672 24604 51707973 -1727885144
        -2096758640 -2013255040 865030346</internalNodes>
      <leafValues>
        -5.9739351272583008e-01 3.9354142546653748e-01</leafValues></_>
    <_>
      <internalNodes>
        0 -1 18317 1466159619 -1962901480 1090521169 1058013212
        268574830 1925316864 587452599 -777830393</internalNodes>
      <leafValues>
        -5.1933687925338745e-01 4.7664594650268555e-01</leafValues></_>
    <_>
      <internalNodes>
        0 -1 179192 -771163110 -754659324 -1341112059 353697857
        -939474230 -1028423600 -2009563026 -1064844501</internalNodes>
      <leafValues>
        -5.0813519954681396e-01 4.8444271087646484e-01</leafValues></_>
    <_>
      <internalNodes>
        0 -1 214725 -679477426 1392869204 2080370608 -784859480
        1979670503 131561287 1711136254 -50333697</internalNodes>
      <leafValues>
        -4.3477976322174072e-01 6.0335958003997803e-01</leafValues></_></weakClassifiers></stage3>
</opencv_storage>
