<?xml version="1.0"?>
<opencv_storage>
<stage14>
  <maxWeakCount>8</maxWeakCount>
  <stageThreshold>-8.4696704149246216e-01</stageThreshold>
  <weakClassifiers>
    <_>
      <internalNodes>
        0 -1 5618 1723853883 -1938358290 -419954690 -1212285060 2129732
        1131708196 1967176515 1198586867</internalNodes>
      <leafValues>
        -4.2978724837303162e-01 5.3274333477020264e-01</leafValues></_>
    <_>
      <internalNodes>
        0 -1 180455 -1460434693 -638159896 1048313463 -2055442641
        -1502202625 -1133723737 -1393236038 674029197</internalNodes>
      <leafValues>
        -3.8106274604797363e-01 5.2937549352645874e-01</leafValues></_>
    <_>
      <internalNodes>
        0 -1 528 -387373271 -1140878548 -1367357677 1073687476 117421820
        1190621183 1148650973 -469766785</internalNodes>
      <leafValues>
        -4.2216995358467102e-01 5.1328319311141968e-01</leafValues></_>
    <_>
      <internalNodes>
        0 -1 88286 1873308406 -1197239711 1811878498 -471244174
        -1007856193 -545789961 2096975487 -2656908</internalNodes>
      <leafValues>
        -4.2042091488838196e-01 5.2490252256393433e-01</leafValues></_>
    <_>
      <internalNodes>
        0 -1 166187 1688650325 -1009259267 -1917923425 -897132853
        -796950655 -35 1307241845 -272308250</internalNodes>
      <leafValues>
        -4.1304463148117065e-01 6.0408526659011841e-01</leafValues></_>
    <_>
      <internalNodes>
        0 -1 154837 -1324052989 4784338 -1067450077 318816469 1610635402
        -100138944 -1870610277 707913731</internalNodes>
      <leafValues>
        -6.0149723291397095e-01 3.8649541139602661e-01</leafValues></_>
    <_>
      <internalNodes>
        0 -1 236514 -456879612 306303046 -2130706165 -1030684392
        -2100819415 -1610313536 -788413301 -402195386</internalNodes>
      <leafValues>
        -5.1967954635620117e-01 4.5288738608360291e-01</leafValues></_>
    <_>
      <internalNodes>
        0 -1 5450 -1043248801 1091928064 1141178436 -1056538105
        1342704674 11599880 -1979664862 -683455968</internalNodes>
      <leafValues>
        -4.8763334751129150e-01 5.2202039957046509e-01</leafValues></_></weakClassifiers></stage14>
</opencv_storage>
