<?xml version="1.0"?>
<opencv_storage>
<stage5>
  <maxWeakCount>7</maxWeakCount>
  <stageThreshold>-4.8183923959732056e-01</stageThreshold>
  <weakClassifiers>
    <_>
      <internalNodes>
        0 -1 165298 -356905936 2122223358 -969507600 792391419 -33575241
        -71352329 -1887490569 -813707521</internalNodes>
      <leafValues>
        -3.2418525218963623e-01 5.7915437221527100e-01</leafValues></_>
    <_>
      <internalNodes>
        0 -1 163967 -1597392971 -578071663 1744867652 1435832323
        139500169 -1308491518 54760395 698687896</internalNodes>
      <leafValues>
        -5.0492018461227417e-01 4.0412586927413940e-01</leafValues></_>
    <_>
      <internalNodes>
        0 -1 406 -750563521 -1753104187 -805269070 1563382223 1073879911
        2063646850 -1069252553 -754593662</internalNodes>
      <leafValues>
        -4.9687743186950684e-01 4.2316335439682007e-01</leafValues></_>
    <_>
      <internalNodes>
        0 -1 106320 -672144797 -487592086 -1091588317 -537395344
        -554773201 -1266745473 1845470983 -839126893</internalNodes>
      <leafValues>
        -3.9009478688240051e-01 5.7003509998321533e-01</leafValues></_>
    <_>
      <internalNodes>
        0 -1 194359 1825254077 1365009229 1551960115 -1215577981
        813764747 -528482175 -360644438 -1741238346</internalNodes>
      <leafValues>
        -4.4903108477592468e-01 5.1886445283889771e-01</leafValues></_>
    <_>
      <internalNodes>
        0 -1 115612 806391954 -1873739712 285231379 299331984
        -1031503733 -382173184 1208008923 1699924941</internalNodes>
      <leafValues>
        -4.6937569975852966e-01 5.0711935758590698e-01</leafValues></_>
    <_>
      <internalNodes>
        0 -1 97095 943956826 1443971149 536936512 -2121181929
        -1996447559 -896331639 989889180 975867531</internalNodes>
      <leafValues>
        -5.7978123426437378e-01 4.4181376695632935e-01</leafValues></_></weakClassifiers></stage5>
</opencv_storage>
