<?xml version="1.0"?>
<opencv_storage>
<stage2>
  <maxWeakCount>8</maxWeakCount>
  <stageThreshold>-1.2941552400588989e+00</stageThreshold>
  <weakClassifiers>
    <_>
      <internalNodes>
        0 -1 203205 825693458 1494816771 335547411 924139795 1392607391
        -100662836 143655818 168702239</internalNodes>
      <leafValues>
        -6.3054186105728149e-01 5.4941374063491821e-01</leafValues></_>
    <_>
      <internalNodes>
        0 -1 115560 33232 830558744 830472193 327226113 -1869905509
        -1197440984 402657417 856711521</internalNodes>
      <leafValues>
        -5.1822435855865479e-01 4.6027967333793640e-01</leafValues></_>
    <_>
      <internalNodes>
        0 -1 119329 1258119167 -67637531 543827984 430515600 822078875
        -8194 678210765 -1157888883</internalNodes>
      <leafValues>
        -4.2449054121971130e-01 5.7260203361511230e-01</leafValues></_>
    <_>
      <internalNodes>
        0 -1 146823 -2004812301 293699603 286347329 -1660682232
        151120299 596181024 17924786 1317228703</internalNodes>
      <leafValues>
        -4.9574136734008789e-01 4.7995489835739136e-01</leafValues></_>
    <_>
      <internalNodes>
        0 -1 4197 -796680127 1377038622 286294409 395051025 302002691
        420380696 404228162 1736559381</internalNodes>
      <leafValues>
        -6.0268819332122803e-01 4.3500649929046631e-01</leafValues></_>
    <_>
      <internalNodes>
        0 -1 204196 -657389568 1879384325 268452165 612549377
        -2126331901 -1602060288 -897019732 1040468559</internalNodes>
      <leafValues>
        -6.3285070657730103e-01 4.1471537947654724e-01</leafValues></_>
    <_>
      <internalNodes>
        0 -1 201530 1352840690 1498533896 -1868263144 2004992023
        169543882 1745387648 1073760393 402852651</internalNodes>
      <leafValues>
        -5.0898772478103638e-01 5.2522295713424683e-01</leafValues></_>
    <_>
      <internalNodes>
        0 -1 186850 1554568920 -686728939 1091588401 1091847042
        -771495270 -108842344 -779971697 -1852704380</internalNodes>
      <leafValues>
        -5.7904392480850220e-01 5.0597852468490601e-01</leafValues></_></weakClassifiers></stage2>
</opencv_storage>
