<?xml version="1.0"?>
<opencv_storage>
<stage7>
  <maxWeakCount>7</maxWeakCount>
  <stageThreshold>-6.9810456037521362e-01</stageThreshold>
  <weakClassifiers>
    <_>
      <internalNodes>
        0 -1 184385 403650054 286859525 553648267 289948160 -1706532658
        1638498368 550011067 705411630</internalNodes>
      <leafValues>
        -5.8083832263946533e-01 4.6919432282447815e-01</leafValues></_>
    <_>
      <internalNodes>
        0 -1 216297 -254719410 1459683340 1090619928 -1181661119
        -1475141504 -1315794750 -1971221330 -1475710962</internalNodes>
      <leafValues>
        -4.3777689337730408e-01 4.7900736331939697e-01</leafValues></_>
    <_>
      <internalNodes>
        0 -1 52358 -440405406 -1545395424 -98587 -185620953 -1937796205
        -956303497 -729823745 -704654222</internalNodes>
      <leafValues>
        -3.3223220705986023e-01 6.4151668548583984e-01</leafValues></_>
    <_>
      <internalNodes>
        0 -1 161349 -401865631 -1870278510 138412039 201326669
        -1047799644 -1970691968 -838098919 -23359077</internalNodes>
      <leafValues>
        -5.4712748527526855e-01 3.9194905757904053e-01</leafValues></_>
    <_>
      <internalNodes>
        0 -1 25222 -1282187237 385994894 32921 1328222338 2047036417
        -914307064 319078402 -78149501</internalNodes>
      <leafValues>
        -5.1934051513671875e-01 4.4453755021095276e-01</leafValues></_>
    <_>
      <internalNodes>
        0 -1 182598 -116791666 269370406 -737914024 -1521155568
        293847211 143278336 -1610529399 6275721</internalNodes>
      <leafValues>
        -4.8550805449485779e-01 4.8948386311531067e-01</leafValues></_>
    <_>
      <internalNodes>
        0 -1 183054 1347472018 -241052032 -1275026278 1359282757
        -2111790656 -1971125752 -1878998839 -1065311914</internalNodes>
      <leafValues>
        -6.2613379955291748e-01 4.1807121038436890e-01</leafValues></_></weakClassifiers></stage7>
</opencv_storage>
