<?xml version="1.0"?>
<opencv_storage>
<stage9>
  <maxWeakCount>7</maxWeakCount>
  <stageThreshold>-5.5024182796478271e-01</stageThreshold>
  <weakClassifiers>
    <_>
      <internalNodes>
        0 -1 83958 2117839906 -1703203185 2129653727 531611647
        2105515951 263069662 -536911889 2112536799</internalNodes>
      <leafValues>
        -3.4469696879386902e-01 5.4291045665740967e-01</leafValues></_>
    <_>
      <internalNodes>
        0 -1 718 1542024987 -76632199 2130673575 2146920423 1593015642
        1941864181 -168028812 -76023945</internalNodes>
      <leafValues>
        -3.6743870377540588e-01 5.6127017736434937e-01</leafValues></_>
    <_>
      <internalNodes>
        0 -1 6964 -901135793 2063663377 67109521 458227984 1091045883
        -527809519 1210630958 1363710939</internalNodes>
      <leafValues>
        -4.7421821951866150e-01 4.6108788251876831e-01</leafValues></_>
    <_>
      <internalNodes>
        0 -1 111066 -1576332038 -1064775406 838885428 -1659776238
        1476436153 1881276544 17383686 -576228269</internalNodes>
      <leafValues>
        -5.0953805446624756e-01 4.3030032515525818e-01</leafValues></_>
    <_>
      <internalNodes>
        0 -1 205196 -788215680 -671088610 889208920 1368490504
        -1073702904 1228931080 -528225664 -396297669</internalNodes>
      <leafValues>
        -6.5045613050460815e-01 3.5478490591049194e-01</leafValues></_>
    <_>
      <internalNodes>
        0 -1 249171 -349724238 -788495220 285442129 830670856 134284016
        1879703688 1216874703 1766031899</internalNodes>
      <leafValues>
        -4.7890403866767883e-01 4.8749807476997375e-01</leafValues></_>
    <_>
      <internalNodes>
        0 -1 260815 -65428698 1461223571 -1870298493 -1190068157
        1493240248 343933060 -2147433561 304210245</internalNodes>
      <leafValues>
        -4.8114439845085144e-01 4.8029977083206177e-01</leafValues></_></weakClassifiers></stage9>
</opencv_storage>
