<?xml version="1.0"?>
<opencv_storage>
<stage19>
  <maxWeakCount>10</maxWeakCount>
  <stageThreshold>-1.0363593101501465e+00</stageThreshold>
  <weakClassifiers>
    <_>
      <internalNodes>
        0 -1 46327 -2007957110 163885190 25167025 163577872 402673794
        1376256009 134269160 403329089</internalNodes>
      <leafValues>
        -6.3036304712295532e-01 4.5566692948341370e-01</leafValues></_>
    <_>
      <internalNodes>
        0 -1 6914 1242024682 960528897 -2012182528 2031161344 18974
        713588779 1073889416 1091059715</internalNodes>
      <leafValues>
        -5.3103369474411011e-01 3.6287215352058411e-01</leafValues></_>
    <_>
      <internalNodes>
        0 -1 219418 -928019828 -43253795 1065328298 691614394 1920983688
        -17531010 1928789646 -223788425</internalNodes>
      <leafValues>
        -3.9234188199043274e-01 5.1689195632934570e-01</leafValues></_>
    <_>
      <internalNodes>
        0 -1 186634 1000937694 -581169561 -1458644641 -1576424930
        -2136018037 -117637122 221757738 -1692420522</internalNodes>
      <leafValues>
        -4.1608563065528870e-01 4.9075302481651306e-01</leafValues></_>
    <_>
      <internalNodes>
        0 -1 249059 -1398609353 -227295505 -1682149402 522502127
        107616063 -581009547 133184943 1137649270</internalNodes>
      <leafValues>
        -4.0420222282409668e-01 5.1286917924880981e-01</leafValues></_>
    <_>
      <internalNodes>
        0 -1 174693 -916337630 522940326 1610465023 -1376317726
        -269168716 1475215341 -705364745 1629023482</internalNodes>
      <leafValues>
        -4.5927333831787109e-01 4.7646111249923706e-01</leafValues></_>
    <_>
      <internalNodes>
        0 -1 182238 -2100414860 322977812 -1072689128 1510522929 8974384
        -1878523904 -926941181 -100431469</internalNodes>
      <leafValues>
        -6.0303622484207153e-01 3.5968941450119019e-01</leafValues></_>
    <_>
      <internalNodes>
        0 -1 190845 -1024800765 -1778537593 -1327039770 -1255014423
        2095941589 1006600180 1693969894 -1322791201</internalNodes>
      <leafValues>
        -4.5916044712066650e-01 5.3652626276016235e-01</leafValues></_>
    <_>
      <internalNodes>
        0 -1 178488 -1865522045 -729776103 1124189964 1077985285
        -2143245919 -1551171580 -2138151871 1391692235</internalNodes>
      <leafValues>
        -4.9046152830123901e-01 4.9965420365333557e-01</leafValues></_>
    <_>
      <internalNodes>
        0 -1 45903 -245901051 -569306686 134300228 -1123712960
        -1039408527 1090551809 327680006 1133363435</internalNodes>
      <leafValues>
        -5.3154957294464111e-01 4.6282419562339783e-01</leafValues></_></weakClassifiers></stage19>
</opencv_storage>
