<?xml version="1.0"?>
<opencv_storage>
<stage15>
  <maxWeakCount>9</maxWeakCount>
  <stageThreshold>-6.4723497629165649e-01</stageThreshold>
  <weakClassifiers>
    <_>
      <internalNodes>
        0 -1 152974 -89594524 -2144805232 1677262844 -2013265870
        -1064656236 -1316061176 1735912064 -472584194</internalNodes>
      <leafValues>
        -4.7268408536911011e-01 5.0805765390396118e-01</leafValues></_>
    <_>
      <internalNodes>
        0 -1 88249 -507534366 -739515029 -1342233052 -68478230
        -1901375782 -573575705 -940079922 -543701797</internalNodes>
      <leafValues>
        -3.3168759942054749e-01 6.1587494611740112e-01</leafValues></_>
    <_>
      <internalNodes>
        0 -1 64686 12746818 85201675 16781581 650971561 -2138914812
        1184944646 -1341099910 1838784642</internalNodes>
      <leafValues>
        -7.4378824234008789e-01 2.8815561532974243e-01</leafValues></_>
    <_>
      <internalNodes>
        0 -1 260957 1795807678 -1055350779 1342214538 -1856962483
        -2008534613 630785 843186318 147063529</internalNodes>
      <leafValues>
        -4.8042851686477661e-01 4.5704180002212524e-01</leafValues></_>
    <_>
      <internalNodes>
        0 -1 205277 1493909962 -602468351 -2130620351 419516433
        1610640011 -1602091007 -1022717286 84021259</internalNodes>
      <leafValues>
        -4.8703157901763916e-01 4.4389206171035767e-01</leafValues></_>
    <_>
      <internalNodes>
        0 -1 138418 1494992756 -2142765054 41959745 27 -1556971344
        -1843920883 -2130042229 -988782439</internalNodes>
      <leafValues>
        -5.5131590366363525e-01 4.1819849610328674e-01</leafValues></_>
    <_>
      <internalNodes>
        0 -1 238907 1082312931 -259964864 17826068 -1811591168 33620113
        -2122317632 1082196110 1766310215</internalNodes>
      <leafValues>
        -4.9602651596069336e-01 4.4569802284240723e-01</leafValues></_>
    <_>
      <internalNodes>
        0 -1 195113 -844366087 1055046826 -268517564 522845725
        1065252818 563117485 138187147 1244396714</internalNodes>
      <leafValues>
        -3.9286530017852783e-01 5.8148205280303955e-01</leafValues></_>
    <_>
      <internalNodes>
        0 -1 14850 -532469674 360816640 1090568336 -1342144497
        1099630666 -2013069302 -2029354234 -359579036</internalNodes>
      <leafValues>
        -5.3346955776214600e-01 4.5535483956336975e-01</leafValues></_></weakClassifiers></stage15>
</opencv_storage>
