<?xml version="1.0"?>
<opencv_storage>
<stage8>
  <maxWeakCount>11</maxWeakCount>
  <stageThreshold>-1.1007385253906250e+00</stageThreshold>
  <weakClassifiers>
    <_>
      <internalNodes>
        0 -1 202869 -125918649 959922004 687336062 297642869 1455139578
        -293896453 -1438892882 671245592</internalNodes>
      <leafValues>
        -2.8455284237861633e-01 5.8375632762908936e-01</leafValues></_>
    <_>
      <internalNodes>
        0 -1 43611 156070600 286065684 538116170 -134127295 -2130083511
        -527818232 -2013230890 1661573257</internalNodes>
      <leafValues>
        -5.4245555400848389e-01 3.8522309064865112e-01</leafValues></_>
    <_>
      <internalNodes>
        0 -1 194375 -967445286 -94666478 1079246865 319826177
        -2013228604 -1736015870 -1849511270 -771636598</internalNodes>
      <leafValues>
        -4.1509780287742615e-01 5.2851307392120361e-01</leafValues></_>
    <_>
      <internalNodes>
        0 -1 140520 -252520525 -1234155835 2012118927 1635744469
        -1242189585 -272660714 -193409063 1360418164</internalNodes>
      <leafValues>
        -4.1072893142700195e-01 5.2542030811309814e-01</leafValues></_>
    <_>
      <internalNodes>
        0 -1 242636 -295444529 -387389530 1879030577 100637628 989095866
        -1228972175 -1073940496 -1158678529</internalNodes>
      <leafValues>
        -3.4417331218719482e-01 6.9264549016952515e-01</leafValues></_>
    <_>
      <internalNodes>
        0 -1 4791 537889087 1368457218 -2126315133 -1321102560 16787572
        167870980 -536723357 -138156031</internalNodes>
      <leafValues>
        -5.0517654418945313e-01 4.6843221783638000e-01</leafValues></_>
    <_>
      <internalNodes>
        0 -1 209170 -995567024 2090221168 805240563 -1725161604
        -1376088071 -1620639747 1065156600 -1180734440</internalNodes>
      <leafValues>
        -4.5207452774047852e-01 5.5189800262451172e-01</leafValues></_>
    <_>
      <internalNodes>
        0 -1 190838 1437106178 51412993 1342275656 -1794825717
        -1314766704 1610842250 -402379175 1131620875</internalNodes>
      <leafValues>
        -5.3321057558059692e-01 4.7479915618896484e-01</leafValues></_>
    <_>
      <internalNodes>
        0 -1 88786 -943195602 -374440206 -150999821 2143207295
        -163649803 -151011329 91573407 -450005729</internalNodes>
      <leafValues>
        -4.1553851962089539e-01 6.1658591032028198e-01</leafValues></_>
    <_>
      <internalNodes>
        0 -1 156286 -486309117 1545076752 -2013243373 184899737
        1879132609 -1466859295 -2147471226 1375830465</internalNodes>
      <leafValues>
        -5.0931715965270996e-01 4.9579739570617676e-01</leafValues></_>
    <_>
      <internalNodes>
        0 -1 203175 1950856293 -112316610 -1342332173 -655509520
        -419443556 -63635849 1592888762 -1308561531</internalNodes>
      <leafValues>
        -4.3602126836776733e-01 6.2793862819671631e-01</leafValues></_></weakClassifiers></stage8>
</opencv_storage>
