<?xml version="1.0"?>
<opencv_storage>
<stage16>
  <maxWeakCount>7</maxWeakCount>
  <stageThreshold>-4.7504284977912903e-01</stageThreshold>
  <weakClassifiers>
    <_>
      <internalNodes>
        0 -1 264809 -1379132668 981360506 2147254261 334774130 251068654
        1610481663 1174355663 842275247</internalNodes>
      <leafValues>
        -4.4607841968536377e-01 4.8825502395629883e-01</leafValues></_>
    <_>
      <internalNodes>
        0 -1 151297 -1404582989 -785381375 1090638099 -950758639
        134385798 587202560 1117275039 1137819936</internalNodes>
      <leafValues>
        -4.4259226322174072e-01 4.3506851792335510e-01</leafValues></_>
    <_>
      <internalNodes>
        0 -1 225529 -1216615790 295866161 805254152 1126673742
        2147342073 -671221985 -75565097 300416198</internalNodes>
      <leafValues>
        -4.2198860645294189e-01 4.8430025577545166e-01</leafValues></_>
    <_>
      <internalNodes>
        0 -1 182843 2044432515 1377053180 -1409688129 435751117
        -533276249 -4106 179043775 -787624579</internalNodes>
      <leafValues>
        -3.1559637188911438e-01 6.3055044412612915e-01</leafValues></_>
    <_>
      <internalNodes>
        0 -1 11734 -1497168977 -1696952188 -2147482348 1695122176
        411656980 511705097 1627966065 -687568254</internalNodes>
      <leafValues>
        -5.7338148355484009e-01 3.9850446581840515e-01</leafValues></_>
    <_>
      <internalNodes>
        0 -1 239793 -292225422 -50298858 2013278674 -922647541 926229
        -1987440112 -1333787954 1028884617</internalNodes>
      <leafValues>
        -4.8274329304695129e-01 4.6314659714698792e-01</leafValues></_>
    <_>
      <internalNodes>
        0 -1 190416 1221294586 -12205567 140 574226548 -2147307319
        -1197965262 187271424 -901389414</internalNodes>
      <leafValues>
        -5.1094549894332886e-01 4.5570185780525208e-01</leafValues></_></weakClassifiers></stage16>
</opencv_storage>
