<?xml version="1.0"?>
<opencv_storage>
<stage18>
  <maxWeakCount>10</maxWeakCount>
  <stageThreshold>-6.4518010616302490e-01</stageThreshold>
  <weakClassifiers>
    <_>
      <internalNodes>
        0 -1 181200 -494952682 146243391 788163310 2883325 -2105513802
        646176634 -50348354 146341243</internalNodes>
      <leafValues>
        -3.5510203242301941e-01 5.1711714267730713e-01</leafValues></_>
    <_>
      <internalNodes>
        0 -1 211770 -188794226 -965599301 -1090863171 -80347151
        -1065923701 -58851457 -25616622 -153485545</internalNodes>
      <leafValues>
        -3.1188023090362549e-01 5.5724906921386719e-01</leafValues></_>
    <_>
      <internalNodes>
        0 -1 231406 -206600583 -564994179 1325232127 41545262 -431514387
        -25166065 -374395203 -259795414</internalNodes>
      <leafValues>
        -3.0306443572044373e-01 6.1989867687225342e-01</leafValues></_>
    <_>
      <internalNodes>
        0 -1 39485 -786087413 142966784 -1878425408 1963819081
        -1551203827 73433219 215827 2058873539</internalNodes>
      <leafValues>
        -4.6793800592422485e-01 4.5265039801597595e-01</leafValues></_>
    <_>
      <internalNodes>
        0 -1 255648 354686036 452198335 1744827119 -1993314633 368358006
        -1670250642 -1677875092 850013756</internalNodes>
      <leafValues>
        -4.7325819730758667e-01 4.8737716674804688e-01</leafValues></_>
    <_>
      <internalNodes>
        0 -1 6801 -745172720 -938409896 32863 -1358839481 -2000645876
        570949768 -1876225838 1888436769</internalNodes>
      <leafValues>
        -5.5664271116256714e-01 3.8289809226989746e-01</leafValues></_>
    <_>
      <internalNodes>
        0 -1 194249 -16809217 -248697173 2062429221 598600939 -125852932
        -1208129793 -1363751201 -269785493</internalNodes>
      <leafValues>
        -3.4964939951896667e-01 6.9122880697250366e-01</leafValues></_>
    <_>
      <internalNodes>
        0 -1 232291 -525636720 -1297694490 98480 -1912165879 33620385
        -780136437 -1463662431 1804093457</internalNodes>
      <leafValues>
        -5.2752429246902466e-01 4.5685246586799622e-01</leafValues></_>
    <_>
      <internalNodes>
        0 -1 191669 -1079091713 -609290252 -1627506885 -1917239426
        -1137357378 296777586 670385317 993946</internalNodes>
      <leafValues>
        -4.5849239826202393e-01 5.3106981515884399e-01</leafValues></_>
    <_>
      <internalNodes>
        0 -1 199280 -662704536 -1695596626 -1426171219 118160478
        -1241653112 -171974796 -16806706 949942118</internalNodes>
      <leafValues>
        -4.8315298557281494e-01 5.2506583929061890e-01</leafValues></_></weakClassifiers></stage18>
</opencv_storage>
