<?xml version="1.0"?>
<opencv_storage>
<stage12>
  <maxWeakCount>9</maxWeakCount>
  <stageThreshold>-8.0100542306900024e-01</stageThreshold>
  <weakClassifiers>
    <_>
      <internalNodes>
        0 -1 178631 564812114 -805372913 652093966 1230669143 985047018
        -570491009 88000007 -81395865</internalNodes>
      <leafValues>
        -3.0847457051277161e-01 5.7623761892318726e-01</leafValues></_>
    <_>
      <internalNodes>
        0 -1 765 -632883801 713573648 268468369 -721063542 8538420
        100706306 -1878962075 1973541378</internalNodes>
      <leafValues>
        -5.5043309926986694e-01 3.9679920673370361e-01</leafValues></_>
    <_>
      <internalNodes>
        0 -1 127016 1292366725 -654113518 16859136 1426542853 587279041
        822116512 361441499 836331467</internalNodes>
      <leafValues>
        -4.7553312778472900e-01 4.6460762619972229e-01</leafValues></_>
    <_>
      <internalNodes>
        0 -1 188366 1347966209 1950417435 598276 286474371 -2145351550
        -1979678309 -1577023409 991791177</internalNodes>
      <leafValues>
        -5.6318706274032593e-01 3.9408370852470398e-01</leafValues></_>
    <_>
      <internalNodes>
        0 -1 12634 -108483723 1091260810 98644 1095077907 805833038
        176179210 -2013173407 -417097629</internalNodes>
      <leafValues>
        -4.7027805447578430e-01 4.7425180673599243e-01</leafValues></_>
    <_>
      <internalNodes>
        0 -1 262012 -1192614295 -1079279684 1874853856 938704748
        -294656342 -1612746889 134181306 -1174966794</internalNodes>
      <leafValues>
        -3.9702039957046509e-01 6.0270589590072632e-01</leafValues></_>
    <_>
      <internalNodes>
        0 -1 117893 1208077486 1828852109 21200912 1101972 1208156290
        226623752 1092366 -1817243062</internalNodes>
      <leafValues>
        -5.6098985671997070e-01 4.4389241933822632e-01</leafValues></_>
    <_>
      <internalNodes>
        0 -1 86155 1343326460 -1337653992 1879048256 -183434223
        -1870053220 -2130706427 67215385 -1300084223</internalNodes>
      <leafValues>
        -6.3349175453186035e-01 4.1312852501869202e-01</leafValues></_>
    <_>
      <internalNodes>
        0 -1 130641 88752355 427301203 53559 285249536 -1727982525
        1627401227 541149211 1479561825</internalNodes>
      <leafValues>
        -6.7838269472122192e-01 3.9120814204216003e-01</leafValues></_></weakClassifiers></stage12>
</opencv_storage>
