<?xml version="1.0"?>
<opencv_storage>
<stage10>
  <maxWeakCount>7</maxWeakCount>
  <stageThreshold>-5.3155088424682617e-01</stageThreshold>
  <weakClassifiers>
    <_>
      <internalNodes>
        0 -1 13957 -83893111 575418007 1852766192 402128831 4193861
        611843455 -722078383 1173484631</internalNodes>
      <leafValues>
        -3.5507246851921082e-01 5.6870228052139282e-01</leafValues></_>
    <_>
      <internalNodes>
        0 -1 120988 -1075659789 -1582123278 -1409334346 1441421051
        1383963638 -269131787 905921791 234833399</internalNodes>
      <leafValues>
        -4.1901972889900208e-01 4.9157533049583435e-01</leafValues></_>
    <_>
      <internalNodes>
        0 -1 12060 -1050474910 285348106 -1861123357 1414365258
        1359546455 2021785601 33653285 -618272367</internalNodes>
      <leafValues>
        -5.6319218873977661e-01 3.7150904536247253e-01</leafValues></_>
    <_>
      <internalNodes>
        0 -1 170756 709806826 -1253900281 1073762456 521635987
        -216006007 1814659203 -1602189094 -840572238</internalNodes>
      <leafValues>
        -4.6976998448371887e-01 4.5915573835372925e-01</leafValues></_>
    <_>
      <internalNodes>
        0 -1 66221 1605339655 5247040 -2130427893 -612335581 -1299916732
        -903838710 -1039454068 -577519062</internalNodes>
      <leafValues>
        -4.4325491786003113e-01 5.3181678056716919e-01</leafValues></_>
    <_>
      <internalNodes>
        0 -1 190527 -706022254 -171720703 136446164 -1728028544
        1629532458 -1710751472 151028226 974021319</internalNodes>
      <leafValues>
        -5.2568006515502930e-01 4.8535254597663879e-01</leafValues></_>
    <_>
      <internalNodes>
        0 -1 263423 173065621 -1996438325 197 394383362 67715520
        -905936767 -2012394646 446302627</internalNodes>
      <leafValues>
        -5.1885706186294556e-01 4.6845170855522156e-01</leafValues></_></weakClassifiers></stage10>
</opencv_storage>
